digraph Tree {
node [shape=box] ;
0 [label="X[6] <= 0.5\ngini = 0.48\nsamples = 534\nvalue = [320, 214]"] ;
1 [label="X[0] <= 2.5\ngini = 0.375\nsamples = 200\nvalue = [50, 150]"] ;
0 -> 1 [labeldistance=2.5, labelangle=45, headlabel="True"] ;
2 [label="X[4] <= 13.25\ngini = 0.096\nsamples = 119\nvalue = [6, 113]"] ;
1 -> 2 ;
3 [label="X[1] <= 53.5\ngini = 0.278\nsamples = 18\nvalue = [3, 15]"] ;
2 -> 3 ;
4 [label="X[4] <= 12.825\ngini = 0.208\nsamples = 17\nvalue = [2, 15]"] ;
3 -> 4 ;
5 [label="gini = 0.0\nsamples = 7\nvalue = [0, 7]"] ;
4 -> 5 ;
6 [label="X[1] <= 26.0\ngini = 0.32\nsamples = 10\nvalue = [2, 8]"] ;
4 -> 6 ;
7 [label="gini = 0.5\nsamples = 2\nvalue = [1, 1]"] ;
6 -> 7 ;
8 [label="X[1] <= 37.0\ngini = 0.219\nsamples = 8\nvalue = [1, 7]"] ;
6 -> 8 ;
9 [label="gini = 0.0\nsamples = 5\nvalue = [0, 5]"] ;
8 -> 9 ;
10 [label="X[1] <= 39.0\ngini = 0.444\nsamples = 3\nvalue = [1, 2]"] ;
8 -> 10 ;
11 [label="gini = 0.0\nsamples = 1\nvalue = [1, 0]"] ;
10 -> 11 ;
12 [label="gini = 0.0\nsamples = 2\nvalue = [0, 2]"] ;
10 -> 12 ;
13 [label="gini = 0.0\nsamples = 1\nvalue = [1, 0]"] ;
3 -> 13 ;
14 [label="X[4] <= 26.125\ngini = 0.058\nsamples = 101\nvalue = [3, 98]"] ;
2 -> 14 ;
15 [label="X[4] <= 25.965\ngini = 0.142\nsamples = 26\nvalue = [2, 24]"] ;
14 -> 15 ;
16 [label="gini = 0.0\nsamples = 14\nvalue = [0, 14]"] ;
15 -> 16 ;
17 [label="X[1] <= 43.0\ngini = 0.278\nsamples = 12\nvalue = [2, 10]"] ;
15 -> 17 ;
18 [label="X[3] <= 0.5\ngini = 0.18\nsamples = 10\nvalue = [1, 9]"] ;
17 -> 18 ;
19 [label="gini = 0.0\nsamples = 8\nvalue = [0, 8]"] ;
18 -> 19 ;
20 [label="X[1] <= 14.0\ngini = 0.5\nsamples = 2\nvalue = [1, 1]"] ;
18 -> 20 ;
21 [label="gini = 0.0\nsamples = 1\nvalue = [0, 1]"] ;
20 -> 21 ;
22 [label="gini = 0.0\nsamples = 1\nvalue = [1, 0]"] ;
20 -> 22 ;
23 [label="X[3] <= 0.5\ngini = 0.5\nsamples = 2\nvalue = [1, 1]"] ;
17 -> 23 ;
24 [label="gini = 0.0\nsamples = 1\nvalue = [1, 0]"] ;
23 -> 24 ;
25 [label="gini = 0.0\nsamples = 1\nvalue = [0, 1]"] ;
23 -> 25 ;
26 [label="X[3] <= 1.5\ngini = 0.026\nsamples = 75\nvalue = [1, 74]"] ;
14 -> 26 ;
27 [label="gini = 0.0\nsamples = 62\nvalue = [0, 62]"] ;
26 -> 27 ;
28 [label="X[1] <= 24.5\ngini = 0.142\nsamples = 13\nvalue = [1, 12]"] ;
26 -> 28 ;
29 [label="gini = 0.0\nsamples = 10\nvalue = [0, 10]"] ;
28 -> 29 ;
30 [label="X[1] <= 28.0\ngini = 0.444\nsamples = 3\nvalue = [1, 2]"] ;
28 -> 30 ;
31 [label="gini = 0.0\nsamples = 1\nvalue = [1, 0]"] ;
30 -> 31 ;
32 [label="gini = 0.0\nsamples = 2\nvalue = [0, 2]"] ;
30 -> 32 ;
33 [label="X[4] <= 20.8\ngini = 0.496\nsamples = 81\nvalue = [44, 37]"] ;
1 -> 33 ;
34 [label="X[1] <= 17.5\ngini = 0.489\nsamples = 61\nvalue = [26, 35]"] ;
33 -> 34 ;
35 [label="X[4] <= 9.246\ngini = 0.278\nsamples = 18\nvalue = [3, 15]"] ;
34 -> 35 ;
36 [label="gini = 0.0\nsamples = 6\nvalue = [0, 6]"] ;
35 -> 36 ;
37 [label="X[4] <= 10.798\ngini = 0.375\nsamples = 12\nvalue = [3, 9]"] ;
35 -> 37 ;
38 [label="gini = 0.0\nsamples = 1\nvalue = [1, 0]"] ;
37 -> 38 ;
39 [label="X[1] <= 7.0\ngini = 0.298\nsamples = 11\nvalue = [2, 9]"] ;
37 -> 39 ;
40 [label="gini = 0.0\nsamples = 7\nvalue = [0, 7]"] ;
39 -> 40 ;
41 [label="X[1] <= 11.5\ngini = 0.5\nsamples = 4\nvalue = [2, 2]"] ;
39 -> 41 ;
42 [label="gini = 0.0\nsamples = 1\nvalue = [1, 0]"] ;
41 -> 42 ;
43 [label="X[4] <= 12.848\ngini = 0.444\nsamples = 3\nvalue = [1, 2]"] ;
41 -> 43 ;
44 [label="gini = 0.0\nsamples = 1\nvalue = [0, 1]"] ;
43 -> 44 ;
45 [label="X[1] <= 14.75\ngini = 0.5\nsamples = 2\nvalue = [1, 1]"] ;
43 -> 45 ;
46 [label="gini = 0.0\nsamples = 1\nvalue = [1, 0]"] ;
45 -> 46 ;
47 [label="gini = 0.0\nsamples = 1\nvalue = [0, 1]"] ;
45 -> 47 ;
48 [label="X[1] <= 36.5\ngini = 0.498\nsamples = 43\nvalue = [23, 20]"] ;
34 -> 48 ;
49 [label="X[3] <= 1.5\ngini = 0.498\nsamples = 36\nvalue = [17, 19]"] ;
48 -> 49 ;
50 [label="X[4] <= 19.125\ngini = 0.5\nsamples = 33\nvalue = [17, 16]"] ;
49 -> 50 ;
51 [label="X[4] <= 13.438\ngini = 0.495\nsamples = 31\nvalue = [17, 14]"] ;
50 -> 51 ;
52 [label="X[1] <= 30.25\ngini = 0.499\nsamples = 23\nvalue = [11, 12]"] ;
51 -> 52 ;
53 [label="X[3] <= 0.5\ngini = 0.49\nsamples = 21\nvalue = [9, 12]"] ;
52 -> 53 ;
54 [label="X[4] <= 8.294\ngini = 0.499\nsamples = 19\nvalue = [9, 10]"] ;
53 -> 54 ;
55 [label="X[4] <= 7.0\ngini = 0.459\nsamples = 14\nvalue = [5, 9]"] ;
54 -> 55 ;
56 [label="gini = 0.0\nsamples = 1\nvalue = [1, 0]"] ;
55 -> 56 ;
57 [label="X[1] <= 25.5\ngini = 0.426\nsamples = 13\nvalue = [4, 9]"] ;
55 -> 57 ;
58 [label="X[1] <= 22.5\ngini = 0.463\nsamples = 11\nvalue = [4, 7]"] ;
57 -> 58 ;
59 [label="X[1] <= 21.5\ngini = 0.346\nsamples = 9\nvalue = [2, 7]"] ;
58 -> 59 ;
60 [label="X[4] <= 7.815\ngini = 0.48\nsamples = 5\nvalue = [2, 3]"] ;
59 -> 60 ;
61 [label="X[4] <= 7.623\ngini = 0.444\nsamples = 3\nvalue = [2, 1]"] ;
60 -> 61 ;
62 [label="gini = 0.0\nsamples = 1\nvalue = [0, 1]"] ;
61 -> 62 ;
63 [label="gini = 0.0\nsamples = 2\nvalue = [2, 0]"] ;
61 -> 63 ;
64 [label="gini = 0.0\nsamples = 2\nvalue = [0, 2]"] ;
60 -> 64 ;
65 [label="gini = 0.0\nsamples = 4\nvalue = [0, 4]"] ;
59 -> 65 ;
66 [label="gini = 0.0\nsamples = 2\nvalue = [2, 0]"] ;
58 -> 66 ;
67 [label="gini = 0.0\nsamples = 2\nvalue = [0, 2]"] ;
57 -> 67 ;
68 [label="X[4] <= 11.156\ngini = 0.32\nsamples = 5\nvalue = [4, 1]"] ;
54 -> 68 ;
69 [label="gini = 0.0\nsamples = 4\nvalue = [4, 0]"] ;
68 -> 69 ;
70 [label="gini = 0.0\nsamples = 1\nvalue = [0, 1]"] ;
68 -> 70 ;
71 [label="gini = 0.0\nsamples = 2\nvalue = [0, 2]"] ;
53 -> 71 ;
72 [label="gini = 0.0\nsamples = 2\nvalue = [2, 0]"] ;
52 -> 72 ;
73 [label="X[1] <= 34.0\ngini = 0.375\nsamples = 8\nvalue = [6, 2]"] ;
51 -> 73 ;
74 [label="X[3] <= 0.5\ngini = 0.245\nsamples = 7\nvalue = [6, 1]"] ;
73 -> 74 ;
75 [label="X[4] <= 15.975\ngini = 0.375\nsamples = 4\nvalue = [3, 1]"] ;
74 -> 75 ;
76 [label="gini = 0.0\nsamples = 1\nvalue = [0, 1]"] ;
75 -> 76 ;
77 [label="gini = 0.0\nsamples = 3\nvalue = [3, 0]"] ;
75 -> 77 ;
78 [label="gini = 0.0\nsamples = 3\nvalue = [3, 0]"] ;
74 -> 78 ;
79 [label="gini = 0.0\nsamples = 1\nvalue = [0, 1]"] ;
73 -> 79 ;
80 [label="gini = 0.0\nsamples = 2\nvalue = [0, 2]"] ;
50 -> 80 ;
81 [label="gini = 0.0\nsamples = 3\nvalue = [0, 3]"] ;
49 -> 81 ;
82 [label="X[1] <= 55.0\ngini = 0.245\nsamples = 7\nvalue = [6, 1]"] ;
48 -> 82 ;
83 [label="gini = 0.0\nsamples = 6\nvalue = [6, 0]"] ;
82 -> 83 ;
84 [label="gini = 0.0\nsamples = 1\nvalue = [0, 1]"] ;
82 -> 84 ;
85 [label="X[4] <= 31.331\ngini = 0.18\nsamples = 20\nvalue = [18, 2]"] ;
33 -> 85 ;
86 [label="gini = 0.0\nsamples = 12\nvalue = [12, 0]"] ;
85 -> 86 ;
87 [label="X[4] <= 32.881\ngini = 0.375\nsamples = 8\nvalue = [6, 2]"] ;
85 -> 87 ;
88 [label="gini = 0.0\nsamples = 2\nvalue = [0, 2]"] ;
87 -> 88 ;
89 [label="gini = 0.0\nsamples = 6\nvalue = [6, 0]"] ;
87 -> 89 ;
90 [label="X[0] <= 1.5\ngini = 0.31\nsamples = 334\nvalue = [270, 64]"] ;
0 -> 90 [labeldistance=2.5, labelangle=-45, headlabel="False"] ;
91 [label="X[1] <= 43.0\ngini = 0.47\nsamples = 69\nvalue = [43, 26]"] ;
90 -> 91 ;
92 [label="X[4] <= 15.644\ngini = 0.499\nsamples = 40\nvalue = [19, 21]"] ;
91 -> 92 ;
93 [label="gini = 0.0\nsamples = 3\nvalue = [3, 0]"] ;
92 -> 93 ;
94 [label="X[4] <= 27.135\ngini = 0.491\nsamples = 37\nvalue = [16, 21]"] ;
92 -> 94 ;
95 [label="gini = 0.0\nsamples = 6\nvalue = [0, 6]"] ;
94 -> 95 ;
96 [label="X[1] <= 17.5\ngini = 0.499\nsamples = 31\nvalue = [16, 15]"] ;
94 -> 96 ;
97 [label="gini = 0.0\nsamples = 3\nvalue = [0, 3]"] ;
96 -> 97 ;
98 [label="X[4] <= 379.925\ngini = 0.49\nsamples = 28\nvalue = [16, 12]"] ;
96 -> 98 ;
99 [label="X[4] <= 77.008\ngini = 0.473\nsamples = 26\nvalue = [16, 10]"] ;
98 -> 99 ;
100 [label="X[4] <= 52.277\ngini = 0.5\nsamples = 16\nvalue = [8, 8]"] ;
99 -> 100 ;
101 [label="X[1] <= 27.5\ngini = 0.375\nsamples = 8\nvalue = [6, 2]"] ;
100 -> 101 ;
102 [label="gini = 0.0\nsamples = 1\nvalue = [0, 1]"] ;
101 -> 102 ;
103 [label="X[1] <= 38.0\ngini = 0.245\nsamples = 7\nvalue = [6, 1]"] ;
101 -> 103 ;
104 [label="gini = 0.0\nsamples = 5\nvalue = [5, 0]"] ;
103 -> 104 ;
105 [label="X[4] <= 29.36\ngini = 0.5\nsamples = 2\nvalue = [1, 1]"] ;
103 -> 105 ;
106 [label="gini = 0.0\nsamples = 1\nvalue = [1, 0]"] ;
105 -> 106 ;
107 [label="gini = 0.0\nsamples = 1\nvalue = [0, 1]"] ;
105 -> 107 ;
108 [label="X[1] <= 21.0\ngini = 0.375\nsamples = 8\nvalue = [2, 6]"] ;
100 -> 108 ;
109 [label="gini = 0.0\nsamples = 1\nvalue = [1, 0]"] ;
108 -> 109 ;
110 [label="X[4] <= 64.979\ngini = 0.245\nsamples = 7\nvalue = [1, 6]"] ;
108 -> 110 ;
111 [label="gini = 0.0\nsamples = 5\nvalue = [0, 5]"] ;
110 -> 111 ;
112 [label="X[1] <= 28.0\ngini = 0.5\nsamples = 2\nvalue = [1, 1]"] ;
110 -> 112 ;
113 [label="gini = 0.0\nsamples = 1\nvalue = [0, 1]"] ;
112 -> 113 ;
114 [label="gini = 0.0\nsamples = 1\nvalue = [1, 0]"] ;
112 -> 114 ;
115 [label="X[2] <= 0.5\ngini = 0.32\nsamples = 10\nvalue = [8, 2]"] ;
99 -> 115 ;
116 [label="gini = 0.0\nsamples = 5\nvalue = [5, 0]"] ;
115 -> 116 ;
117 [label="X[4] <= 86.625\ngini = 0.48\nsamples = 5\nvalue = [3, 2]"] ;
115 -> 117 ;
118 [label="gini = 0.0\nsamples = 2\nvalue = [2, 0]"] ;
117 -> 118 ;
119 [label="X[1] <= 21.5\ngini = 0.444\nsamples = 3\nvalue = [1, 2]"] ;
117 -> 119 ;
120 [label="gini = 0.0\nsamples = 1\nvalue = [1, 0]"] ;
119 -> 120 ;
121 [label="gini = 0.0\nsamples = 2\nvalue = [0, 2]"] ;
119 -> 121 ;
122 [label="gini = 0.0\nsamples = 2\nvalue = [0, 2]"] ;
98 -> 122 ;
123 [label="X[1] <= 75.5\ngini = 0.285\nsamples = 29\nvalue = [24, 5]"] ;
91 -> 123 ;
124 [label="X[2] <= 0.5\ngini = 0.245\nsamples = 28\nvalue = [24, 4]"] ;
123 -> 124 ;
125 [label="X[4] <= 27.525\ngini = 0.111\nsamples = 17\nvalue = [16, 1]"] ;
124 -> 125 ;
126 [label="X[1] <= 54.0\ngini = 0.278\nsamples = 6\nvalue = [5, 1]"] ;
125 -> 126 ;
127 [label="X[1] <= 47.5\ngini = 0.444\nsamples = 3\nvalue = [2, 1]"] ;
126 -> 127 ;
128 [label="gini = 0.0\nsamples = 2\nvalue = [2, 0]"] ;
127 -> 128 ;
129 [label="gini = 0.0\nsamples = 1\nvalue = [0, 1]"] ;
127 -> 129 ;
130 [label="gini = 0.0\nsamples = 3\nvalue = [3, 0]"] ;
126 -> 130 ;
131 [label="gini = 0.0\nsamples = 11\nvalue = [11, 0]"] ;
125 -> 131 ;
132 [label="X[4] <= 59.052\ngini = 0.397\nsamples = 11\nvalue = [8, 3]"] ;
124 -> 132 ;
133 [label="gini = 0.0\nsamples = 1\nvalue = [0, 1]"] ;
132 -> 133 ;
134 [label="X[1] <= 49.5\ngini = 0.32\nsamples = 10\nvalue = [8, 2]"] ;
132 -> 134 ;
135 [label="gini = 0.0\nsamples = 4\nvalue = [4, 0]"] ;
134 -> 135 ;
136 [label="X[2] <= 1.5\ngini = 0.444\nsamples = 6\nvalue = [4, 2]"] ;
134 -> 136 ;
137 [label="X[9] <= 0.5\ngini = 0.32\nsamples = 5\nvalue = [4, 1]"] ;
136 -> 137 ;
138 [label="X[1] <= 55.0\ngini = 0.5\nsamples = 2\nvalue = [1, 1]"] ;
137 -> 138 ;
139 [label="gini = 0.0\nsamples = 1\nvalue = [1, 0]"] ;
138 -> 139 ;
140 [label="gini = 0.0\nsamples = 1\nvalue = [0, 1]"] ;
138 -> 140 ;
141 [label="gini = 0.0\nsamples = 3\nvalue = [3, 0]"] ;
137 -> 141 ;
142 [label="gini = 0.0\nsamples = 1\nvalue = [0, 1]"] ;
136 -> 142 ;
143 [label="gini = 0.0\nsamples = 1\nvalue = [0, 1]"] ;
123 -> 143 ;
144 [label="X[1] <= 3.5\ngini = 0.246\nsamples = 265\nvalue = [227, 38]"] ;
90 -> 144 ;
145 [label="X[2] <= 3.0\ngini = 0.444\nsamples = 12\nvalue = [4, 8]"] ;
144 -> 145 ;
146 [label="gini = 0.0\nsamples = 7\nvalue = [0, 7]"] ;
145 -> 146 ;
147 [label="X[1] <= 2.5\ngini = 0.32\nsamples = 5\nvalue = [4, 1]"] ;
145 -> 147 ;
148 [label="gini = 0.0\nsamples = 4\nvalue = [4, 0]"] ;
147 -> 148 ;
149 [label="gini = 0.0\nsamples = 1\nvalue = [0, 1]"] ;
147 -> 149 ;
150 [label="X[4] <= 51.698\ngini = 0.209\nsamples = 253\nvalue = [223, 30]"] ;
144 -> 150 ;
151 [label="X[1] <= 13.0\ngini = 0.197\nsamples = 244\nvalue = [217, 27]"] ;
150 -> 151 ;
152 [label="X[2] <= 2.0\ngini = 0.408\nsamples = 14\nvalue = [10, 4]"] ;
151 -> 152 ;
153 [label="X[1] <= 10.0\ngini = 0.32\nsamples = 5\nvalue = [1, 4]"] ;
152 -> 153 ;
154 [label="gini = 0.0\nsamples = 3\nvalue = [0, 3]"] ;
153 -> 154 ;
155 [label="X[2] <= 0.5\ngini = 0.5\nsamples = 2\nvalue = [1, 1]"] ;
153 -> 155 ;
156 [label="gini = 0.0\nsamples = 1\nvalue = [1, 0]"] ;
155 -> 156 ;
157 [label="gini = 0.0\nsamples = 1\nvalue = [0, 1]"] ;
155 -> 157 ;
158 [label="gini = 0.0\nsamples = 9\nvalue = [9, 0]"] ;
152 -> 158 ;
159 [label="X[4] <= 15.796\ngini = 0.18\nsamples = 230\nvalue = [207, 23]"] ;
151 -> 159 ;
160 [label="X[4] <= 15.646\ngini = 0.206\nsamples = 189\nvalue = [167, 22]"] ;
159 -> 160 ;
161 [label="X[4] <= 13.25\ngini = 0.198\nsamples = 188\nvalue = [167, 21]"] ;
160 -> 161 ;
162 [label="X[1] <= 32.5\ngini = 0.209\nsamples = 177\nvalue = [156, 21]"] ;
161 -> 162 ;
163 [label="X[4] <= 7.012\ngini = 0.232\nsamples = 127\nvalue = [110, 17]"] ;
162 -> 163 ;
164 [label="X[1] <= 22.5\ngini = 0.5\nsamples = 4\nvalue = [2, 2]"] ;
163 -> 164 ;
165 [label="gini = 0.0\nsamples = 2\nvalue = [2, 0]"] ;
164 -> 165 ;
166 [label="gini = 0.0\nsamples = 2\nvalue = [0, 2]"] ;
164 -> 166 ;
167 [label="X[1] <= 30.75\ngini = 0.214\nsamples = 123\nvalue = [108, 15]"] ;
163 -> 167 ;
168 [label="X[9] <= 0.5\ngini = 0.179\nsamples = 111\nvalue = [100, 11]"] ;
167 -> 168 ;
169 [label="X[4] <= 7.746\ngini = 0.397\nsamples = 11\nvalue = [8, 3]"] ;
168 -> 169 ;
170 [label="X[1] <= 22.75\ngini = 0.32\nsamples = 10\nvalue = [8, 2]"] ;
169 -> 170 ;
171 [label="X[2] <= 0.5\ngini = 0.48\nsamples = 5\nvalue = [3, 2]"] ;
170 -> 171 ;
172 [label="X[1] <= 21.0\ngini = 0.444\nsamples = 3\nvalue = [1, 2]"] ;
171 -> 172 ;
173 [label="gini = 0.0\nsamples = 1\nvalue = [0, 1]"] ;
172 -> 173 ;
174 [label="X[4] <= 7.227\ngini = 0.5\nsamples = 2\nvalue = [1, 1]"] ;
172 -> 174 ;
175 [label="gini = 0.0\nsamples = 1\nvalue = [0, 1]"] ;
174 -> 175 ;
176 [label="gini = 0.0\nsamples = 1\nvalue = [1, 0]"] ;
174 -> 176 ;
177 [label="gini = 0.0\nsamples = 2\nvalue = [2, 0]"] ;
171 -> 177 ;
178 [label="gini = 0.0\nsamples = 5\nvalue = [5, 0]"] ;
170 -> 178 ;
179 [label="gini = 0.0\nsamples = 1\nvalue = [0, 1]"] ;
169 -> 179 ;
180 [label="X[1] <= 19.5\ngini = 0.147\nsamples = 100\nvalue = [92, 8]"] ;
168 -> 180 ;
181 [label="X[4] <= 7.973\ngini = 0.278\nsamples = 18\nvalue = [15, 3]"] ;
180 -> 181 ;
182 [label="gini = 0.0\nsamples = 8\nvalue = [8, 0]"] ;
181 -> 182 ;
183 [label="X[4] <= 8.356\ngini = 0.42\nsamples = 10\nvalue = [7, 3]"] ;
181 -> 183 ;
184 [label="X[1] <= 18.5\ngini = 0.444\nsamples = 3\nvalue = [1, 2]"] ;
183 -> 184 ;
185 [label="gini = 0.0\nsamples = 1\nvalue = [0, 1]"] ;
184 -> 185 ;
186 [label="gini = 0.5\nsamples = 2\nvalue = [1, 1]"] ;
184 -> 186 ;
187 [label="X[1] <= 18.5\ngini = 0.245\nsamples = 7\nvalue = [6, 1]"] ;
183 -> 187 ;
188 [label="gini = 0.0\nsamples = 4\nvalue = [4, 0]"] ;
187 -> 188 ;
189 [label="X[0] <= 2.5\ngini = 0.444\nsamples = 3\nvalue = [2, 1]"] ;
187 -> 189 ;
190 [label="gini = 0.5\nsamples = 2\nvalue = [1, 1]"] ;
189 -> 190 ;
191 [label="gini = 0.0\nsamples = 1\nvalue = [1, 0]"] ;
189 -> 191 ;
192 [label="X[4] <= 7.798\ngini = 0.115\nsamples = 82\nvalue = [77, 5]"] ;
180 -> 192 ;
193 [label="X[4] <= 7.648\ngini = 0.255\nsamples = 20\nvalue = [17, 3]"] ;
192 -> 193 ;
194 [label="X[4] <= 7.196\ngini = 0.142\nsamples = 13\nvalue = [12, 1]"] ;
193 -> 194 ;
195 [label="X[4] <= 7.096\ngini = 0.32\nsamples = 5\nvalue = [4, 1]"] ;
194 -> 195 ;
196 [label="gini = 0.0\nsamples = 4\nvalue = [4, 0]"] ;
195 -> 196 ;
197 [label="gini = 0.0\nsamples = 1\nvalue = [0, 1]"] ;
195 -> 197 ;
198 [label="gini = 0.0\nsamples = 8\nvalue = [8, 0]"] ;
194 -> 198 ;
199 [label="X[1] <= 21.5\ngini = 0.408\nsamples = 7\nvalue = [5, 2]"] ;
193 -> 199 ;
200 [label="gini = 0.0\nsamples = 1\nvalue = [0, 1]"] ;
199 -> 200 ;
201 [label="X[2] <= 0.5\ngini = 0.278\nsamples = 6\nvalue = [5, 1]"] ;
199 -> 201 ;
202 [label="gini = 0.0\nsamples = 4\nvalue = [4, 0]"] ;
201 -> 202 ;
203 [label="gini = 0.5\nsamples = 2\nvalue = [1, 1]"] ;
201 -> 203 ;
204 [label="X[1] <= 26.5\ngini = 0.062\nsamples = 62\nvalue = [60, 2]"] ;
192 -> 204 ;
205 [label="gini = 0.0\nsamples = 40\nvalue = [40, 0]"] ;
204 -> 205 ;
206 [label="X[4] <= 8.356\ngini = 0.165\nsamples = 22\nvalue = [20, 2]"] ;
204 -> 206 ;
207 [label="gini = 0.0\nsamples = 9\nvalue = [9, 0]"] ;
206 -> 207 ;
208 [label="X[4] <= 9.081\ngini = 0.26\nsamples = 13\nvalue = [11, 2]"] ;
206 -> 208 ;
209 [label="gini = 0.0\nsamples = 1\nvalue = [0, 1]"] ;
208 -> 209 ;
210 [label="X[0] <= 2.5\ngini = 0.153\nsamples = 12\nvalue = [11, 1]"] ;
208 -> 210 ;
211 [label="gini = 0.0\nsamples = 9\nvalue = [9, 0]"] ;
210 -> 211 ;
212 [label="X[1] <= 28.5\ngini = 0.444\nsamples = 3\nvalue = [2, 1]"] ;
210 -> 212 ;
213 [label="gini = 0.0\nsamples = 2\nvalue = [2, 0]"] ;
212 -> 213 ;
214 [label="gini = 0.0\nsamples = 1\nvalue = [0, 1]"] ;
212 -> 214 ;
215 [label="X[4] <= 11.75\ngini = 0.444\nsamples = 12\nvalue = [8, 4]"] ;
167 -> 215 ;
216 [label="X[4] <= 7.815\ngini = 0.397\nsamples = 11\nvalue = [8, 3]"] ;
215 -> 216 ;
217 [label="gini = 0.0\nsamples = 3\nvalue = [3, 0]"] ;
216 -> 217 ;
218 [label="X[1] <= 31.5\ngini = 0.469\nsamples = 8\nvalue = [5, 3]"] ;
216 -> 218 ;
219 [label="gini = 0.0\nsamples = 1\nvalue = [0, 1]"] ;
218 -> 219 ;
220 [label="X[4] <= 7.875\ngini = 0.408\nsamples = 7\nvalue = [5, 2]"] ;
218 -> 220 ;
221 [label="gini = 0.0\nsamples = 1\nvalue = [0, 1]"] ;
220 -> 221 ;
222 [label="X[4] <= 8.144\ngini = 0.278\nsamples = 6\nvalue = [5, 1]"] ;
220 -> 222 ;
223 [label="X[4] <= 7.91\ngini = 0.375\nsamples = 4\nvalue = [3, 1]"] ;
222 -> 223 ;
224 [label="gini = 0.0\nsamples = 1\nvalue = [1, 0]"] ;
223 -> 224 ;
225 [label="gini = 0.444\nsamples = 3\nvalue = [2, 1]"] ;
223 -> 225 ;
226 [label="gini = 0.0\nsamples = 2\nvalue = [2, 0]"] ;
222 -> 226 ;
227 [label="gini = 0.0\nsamples = 1\nvalue = [0, 1]"] ;
215 -> 227 ;
228 [label="X[4] <= 9.75\ngini = 0.147\nsamples = 50\nvalue = [46, 4]"] ;
162 -> 228 ;
229 [label="X[4] <= 7.91\ngini = 0.056\nsamples = 35\nvalue = [34, 1]"] ;
228 -> 229 ;
230 [label="gini = 0.0\nsamples = 21\nvalue = [21, 0]"] ;
229 -> 230 ;
231 [label="X[4] <= 7.988\ngini = 0.133\nsamples = 14\nvalue = [13, 1]"] ;
229 -> 231 ;
232 [label="X[2] <= 1.0\ngini = 0.5\nsamples = 2\nvalue = [1, 1]"] ;
231 -> 232 ;
233 [label="gini = 0.0\nsamples = 1\nvalue = [0, 1]"] ;
232 -> 233 ;
234 [label="gini = 0.0\nsamples = 1\nvalue = [1, 0]"] ;
232 -> 234 ;
235 [label="gini = 0.0\nsamples = 12\nvalue = [12, 0]"] ;
231 -> 235 ;
236 [label="X[1] <= 59.5\ngini = 0.32\nsamples = 15\nvalue = [12, 3]"] ;
228 -> 236 ;
237 [label="X[4] <= 12.762\ngini = 0.26\nsamples = 13\nvalue = [11, 2]"] ;
236 -> 237 ;
238 [label="gini = 0.0\nsamples = 5\nvalue = [5, 0]"] ;
237 -> 238 ;
239 [label="X[1] <= 45.0\ngini = 0.375\nsamples = 8\nvalue = [6, 2]"] ;
237 -> 239 ;
240 [label="X[1] <= 40.5\ngini = 0.408\nsamples = 7\nvalue = [5, 2]"] ;
239 -> 240 ;
241 [label="X[1] <= 35.0\ngini = 0.32\nsamples = 5\nvalue = [4, 1]"] ;
240 -> 241 ;
242 [label="gini = 0.444\nsamples = 3\nvalue = [2, 1]"] ;
241 -> 242 ;
243 [label="gini = 0.0\nsamples = 2\nvalue = [2, 0]"] ;
241 -> 243 ;
244 [label="gini = 0.5\nsamples = 2\nvalue = [1, 1]"] ;
240 -> 244 ;
245 [label="gini = 0.0\nsamples = 1\nvalue = [1, 0]"] ;
239 -> 245 ;
246 [label="X[1] <= 64.0\ngini = 0.5\nsamples = 2\nvalue = [1, 1]"] ;
236 -> 246 ;
247 [label="gini = 0.0\nsamples = 1\nvalue = [0, 1]"] ;
246 -> 247 ;
248 [label="gini = 0.0\nsamples = 1\nvalue = [1, 0]"] ;
246 -> 248 ;
249 [label="gini = 0.0\nsamples = 11\nvalue = [11, 0]"] ;
161 -> 249 ;
250 [label="gini = 0.0\nsamples = 1\nvalue = [0, 1]"] ;
160 -> 250 ;
251 [label="X[1] <= 31.5\ngini = 0.048\nsamples = 41\nvalue = [40, 1]"] ;
159 -> 251 ;
252 [label="gini = 0.0\nsamples = 24\nvalue = [24, 0]"] ;
251 -> 252 ;
253 [label="X[1] <= 32.25\ngini = 0.111\nsamples = 17\nvalue = [16, 1]"] ;
251 -> 253 ;
254 [label="X[0] <= 2.5\ngini = 0.5\nsamples = 2\nvalue = [1, 1]"] ;
253 -> 254 ;
255 [label="gini = 0.0\nsamples = 1\nvalue = [0, 1]"] ;
254 -> 255 ;
256 [label="gini = 0.0\nsamples = 1\nvalue = [1, 0]"] ;
254 -> 256 ;
257 [label="gini = 0.0\nsamples = 15\nvalue = [15, 0]"] ;
253 -> 257 ;
258 [label="X[4] <= 64.998\ngini = 0.444\nsamples = 9\nvalue = [6, 3]"] ;
150 -> 258 ;
259 [label="X[1] <= 30.0\ngini = 0.375\nsamples = 4\nvalue = [1, 3]"] ;
258 -> 259 ;
260 [label="X[1] <= 27.0\ngini = 0.5\nsamples = 2\nvalue = [1, 1]"] ;
259 -> 260 ;
261 [label="gini = 0.0\nsamples = 1\nvalue = [0, 1]"] ;
260 -> 261 ;
262 [label="gini = 0.0\nsamples = 1\nvalue = [1, 0]"] ;
260 -> 262 ;
263 [label="gini = 0.0\nsamples = 2\nvalue = [0, 2]"] ;
259 -> 263 ;
264 [label="gini = 0.0\nsamples = 5\nvalue = [5, 0]"] ;
258 -> 264 ;
}